<?xml version="1.0"?>
<opencv_storage>
<stage9>
  <maxWeakCount>5</maxWeakCount>
  <stageThreshold>-2.4704967439174652e-01</stageThreshold>
  <weakClassifiers>
    <_>
      <internalNodes>
        0 -1 29929 -4.3994188308715820e-02</internalNodes>
      <leafValues>
        7.1532845497131348e-01 -7.0297032594680786e-01</leafValues></_>
    <_>
      <internalNodes>
        0 -1 54882 -2.9539388418197632e-01</internalNodes>
      <leafValues>
        5.8675205707550049e-01 -5.8058267831802368e-01</leafValues></_>
    <_>
      <internalNodes>
        0 -1 117492 -2.6565650478005409e-04</internalNodes>
      <leafValues>
        3.2441440224647522e-01 -9.5280575752258301e-01</leafValues></_>
    <_>
      <internalNodes>
        0 -1 109362 3.1019926071166992e-02</internalNodes>
      <leafValues>
        -7.4820619821548462e-01 4.4533151388168335e-01</leafValues></_>
    <_>
      <internalNodes>
        0 -1 93791 6.5347680356353521e-04</internalNodes>
      <leafValues>
        2.9296037554740906e-01 -9.8410540819168091e-01</leafValues></_></weakClassifiers></stage9>
</opencv_storage>
